 const float w1[512] = {-1.4615836143493652,1.131001591682434,-0.33668678998947144,0.9318984150886536,-0.12043754011392593,-0.06001240760087967,-0.02383355051279068,0.011756207793951035,-0.8569815158843994,0.6965976357460022,0.03620118647813797,0.6278809905052185,-0.03144988417625427,-0.14897115528583527,0.07782136648893356,-0.04721563681960106,1.792362093925476,-0.6978421211242676,0.7131634950637817,-0.5967952609062195,-0.16879194974899292,-0.17601457238197327,0.0719045028090477,-0.09637033939361572,1.7199517488479614,-0.8111541271209717,0.781438946723938,-0.5319979786872864,-0.063028484582901,-0.10037011653184891,0.07348386943340302,0.3455420732498169,-1.8245723247528076,0.8688367605209351,-0.4492197632789612,1.086389422416687,0.04348871111869812,-0.11333956569433212,-0.014247825369238853,-0.09131466597318649,1.1083502769470215,-1.0098364353179932,-0.012844199314713478,-1.3984448909759521,0.006450183689594269,0.13205812871456146,-0.1118701621890068,-0.00694823544472456,-0.7892763614654541,0.649861752986908,-0.08048634976148605,0.5693736672401428,-0.0006498072762042284,-0.13810761272907257,0.10691410303115845,0.21574050188064575,1.5571746826171875,-0.9524531960487366,0.48778235912323,-0.9652222394943237,0.12509790062904358,-0.0774916335940361,-0.089604951441288,0.20929303765296936,1.8596899509429932,-0.5741747617721558,0.8677204251289368,-0.7243196368217468,0.16174116730690002,-0.013420186005532742,0.2191038876771927,0.11874831467866898,-1.8032703399658203,0.9843521118164062,-0.6049025058746338,0.8373128771781921,-0.04249321669340134,-0.010217837989330292,-0.03343411535024643,-0.07170591503381729,-1.1845195293426514,0.5342933535575867,0.05340508744120598,0.5708775520324707,-0.19074144959449768,-0.07873369753360748,0.024104362353682518,-0.03314298391342163,1.7615323066711426,-0.7376052737236023,0.4603884518146515,-0.7739789485931396,-0.4177674353122711,-0.24950146675109863,0.10609491914510727,0.037968333810567856,-0.9513621926307678,0.5481920838356018,-0.003213797928765416,0.5575942397117615,-0.18159011006355286,-0.01606174372136593,0.06955983489751816,-0.06374678760766983,-1.6299118995666504,0.9123146533966064,-0.3312830924987793,0.8862366676330566,-0.10446517169475555,-0.09296015650033951,-0.008834505453705788,0.01705167070031166,2.017878293991089,-0.91074138879776,0.5327036380767822,-0.9406110048294067,0.09880240261554718,-0.11820139735937119,0.065024234354496,0.0916704535484314,-1.7029759883880615,1.0507385730743408,-0.3589800000190735,0.8381914496421814,0.014758827164769173,-0.12498683482408524,-0.04867985472083092,0.015768088400363922,-1.759933590888977,0.6438517570495605,-0.6039760112762451,0.6250496506690979,-0.1775725781917572,-0.10569848120212555,0.044429197907447815,0.16995908319950104,-1.735845685005188,0.9511786699295044,-0.5523285865783691,0.9885238409042358,0.028428832069039345,-0.09409774094820023,-0.2145976573228836,0.10719265788793564,1.873427152633667,-0.7950217723846436,0.7056601047515869,-0.6263065338134766,-0.07371396571397781,-0.23906852304935455,0.04103832691907883,-0.05481790751218796,1.0541636943817139,-1.0939507484436035,-0.18907630443572998,-1.2609368562698364,0.23108170926570892,0.06851300597190857,0.02311459183692932,0.10989037156105042,-1.958573818206787,1.0559877157211304,-0.6402854919433594,1.1616750955581665,0.08024796843528748,-0.16317662596702576,-0.06332173198461533,-0.04759310930967331,1.509300947189331,-1.0069977045059204,0.3682554364204407,-0.8141484260559082,0.071129709482193,-0.041417576372623444,0.0483069121837616,0.09516053646802902,1.2099474668502808,-1.1377617120742798,0.24985401332378387,-1.2027138471603394,0.09784094244241714,0.10423953831195831,-0.16880442202091217,-0.04062812402844429,-0.9502896666526794,0.4914852976799011,-0.019970567896962166,0.5190936923027039,-0.03389226645231247,-0.273408442735672,0.05220801383256912,-0.03124356083571911,1.8929798603057861,-0.6040225625038147,0.684627115726471,-0.7187721133232117,-0.030244866386055946,-0.042042020708322525,0.20496805012226105,0.108702152967453,1.486264944076538,-0.9850357174873352,0.1314331293106079,-0.8648335337638855,0.018197672441601753,0.10555455833673477,-0.007897576317191124,0.060913097113370895,1.5937172174453735,-0.6907172203063965,0.3529430627822876,-1.0096046924591064,-0.09860514104366302,0.11439318209886551,0.1481959968805313,0.008696227334439754,-1.7773486375808716,0.566622793674469,-0.7335485219955444,0.5003506541252136,-0.22873389720916748,-0.11180735379457474,0.10322707146406174,0.2244536429643631,-1.7285270690917969,0.9521746039390564,-0.5143505334854126,0.8901361227035522,0.019292455166578293,-0.09812315553426743,-0.08400890976190567,-0.031798578798770905,1.6811517477035522,-0.8242764472961426,0.48233065009117126,-0.9855449199676514,0.0074462671764194965,0.015734242275357246,0.12203037738800049,0.05778280645608902,-1.7568578720092773,0.9141759872436523,-0.3667428195476532,1.1445311307907104,-0.09183406084775925,0.030299300327897072,-0.07246560603380203,-0.018135545775294304,-1.580915093421936,0.8686105012893677,-0.48850902915000916,0.8830597996711731,-0.19862878322601318,-0.08162879943847656,0.09560713171958923,-0.026063350960612297,1.4658641815185547,-0.946539580821991,0.371103435754776,-0.9118719100952148,0.03478289768099785,0.06471585482358932,0.10341574996709824,0.03792811185121536,-1.6907846927642822,0.9235023856163025,-0.2674272656440735,0.845487654209137,-0.10860709100961685,-0.006380635779350996,0.033628687262535095,0.022448303177952766,-1.6939860582351685,0.8689755201339722,-0.27845069766044617,1.01597261428833,0.04322006180882454,0.015832826495170593,-0.12942981719970703,-0.007748532574623823,2.1075785160064697,-0.8709642887115479,0.9727156162261963,-0.9448996186256409,-0.05292747914791107,-0.03277968615293503,0.17113609611988068,-0.058602966368198395,-1.5146901607513428,1.0161030292510986,-0.43254271149635315,0.9253777265548706,-0.06855259090662003,-0.255343496799469,0.043083589524030685,0.1916455179452896,-1.3719125986099243,0.9305800795555115,-0.3718624413013458,0.9029136300086975,-0.15677772462368011,-0.04407873377203941,0.002408343367278576,0.07601212710142136,1.9596551656723022,-0.7604518532752991,0.9009727835655212,-0.7431276440620422,0.005038905423134565,-0.055543236434459686,0.13039427995681763,0.08582217991352081,-0.9348755478858948,0.46744436025619507,-0.11242078989744186,0.4552690088748932,-0.14187300205230713,0.017509382218122482,-0.07542359828948975,0.03328738361597061,1.7089272737503052,-0.943764865398407,0.2876872420310974,-0.8947587013244629,0.05936650559306145,-0.03013475611805916,0.03541102260351181,0.10271225869655609,1.427486777305603,-0.8287869691848755,0.27939531207084656,-0.9545254707336426,0.09638531506061554,-0.011165233328938484,-0.00620646309107542,0.056623008102178574,0.88161700963974,-0.6956914663314819,-0.0224895216524601,-0.7480918765068054,0.0368792824447155,0.44209665060043335,-0.030254367738962173,-0.2916108965873718,1.9069366455078125,-0.7008489370346069,0.4705217778682709,-0.730400025844574,0.18340860307216644,-0.04129200428724289,0.1175398975610733,0.11568646132946014,1.1559511423110962,-0.5658969879150391,0.3554345667362213,-0.7152758836746216,0.2151261270046234,0.13332702219486237,0.20917324721813202,0.12953755259513855,1.6539949178695679,-0.9357433915138245,0.264646977186203,-0.7296046018600464,-0.017339076846837997,0.023534847423434258,-0.0012115116696804762,0.10539237409830093,-1.782637357711792,0.8486216068267822,-0.5560118556022644,1.0462977886199951,0.022991586476564407,-0.1132882609963417,-0.10956554859876633,-0.002327517606317997,1.8032504320144653,-1.0250791311264038,0.5321943163871765,-0.7170657515525818,0.020167028531432152,-0.01929035596549511,0.18705661594867706,-0.05729737505316734,1.6263642311096191,-0.7586315870285034,0.2459987998008728,-0.8944260478019714,0.13327962160110474,-0.08826941251754761,0.02170056663453579,0.1827760487794876,1.5461653470993042,-0.9617547988891602,0.44134169816970825,-0.832085371017456,-0.05346503481268883,0.0927821695804596,0.033691808581352234,0.06336648762226105,-0.5144931674003601,0.6651039719581604,-0.0951007604598999,0.5751946568489075,-0.23139365017414093,-0.21777446568012238,-0.142245814204216,-0.0956619530916214,-1.0503984689712524,0.7144660949707031,0.07966767251491547,0.6261618137359619,-0.17497940361499786,-0.026096902787685394,0.09867396205663681,-0.05529752001166344,-1.3652528524398804,-0.40527328848838806,-0.6673527359962463,-0.47787848114967346,-0.06046320125460625,-0.056642670184373856,0.058588527143001556,-0.05964754894375801,2.000006914138794,-0.7395336031913757,0.8541140556335449,-0.6743060350418091,-0.017431925982236862,-0.0366976261138916,0.19146713614463806,0.03109528310596943,1.8361238241195679,-0.8200836777687073,0.9018880128860474,-0.872599184513092,0.05198051780462265,-0.206010639667511,0.11647409945726395,0.12773407995700836,-1.78053617477417,0.8437084555625916,-0.2694685161113739,0.879037082195282,-0.19541983306407928,-0.10229285061359406,0.057995352894067764,-0.0026354119181632996,1.4851058721542358,-0.9493820071220398,0.33231911063194275,-0.9230840802192688,0.006730222143232822,0.09708785265684128,0.015148340724408627,0.103070929646492,-1.7620384693145752,0.9111647605895996,-0.5788909792900085,1.0027620792388916,0.059392139315605164,-0.13578695058822632,-0.07064720243215561,-0.0451105572283268,-1.5647785663604736,0.6311119794845581,-0.5525472164154053,0.760750949382782,-0.24818147718906403,0.09162305295467377,0.1587214171886444,0.11489547044038773,-1.0554838180541992,0.6228758096694946,-0.05025465041399002,0.6403136253356934,-0.03344084694981575,-0.17926770448684692,-0.05729620158672333,0.09341949224472046,1.4536019563674927,-1.0453276634216309,-0.0034322140272706747,-0.9857334494590759,0.08726437389850616,0.15635457634925842,-0.13836243748664856,0.05368296429514885,-1.6550981998443604,1.0732126235961914,-0.6729832887649536,0.9190610647201538,0.174429252743721,-0.22874318063259125,-0.18342354893684387,0.07303042709827423,-0.9906893372535706,0.43362557888031006,-0.07588759064674377,0.8072417974472046,-0.17166168987751007,-0.07051520049571991,-0.0008141465950757265,0.0063526020385324955,-1.8674262762069702,1.0304018259048462,-0.5449911952018738,0.907988429069519,-0.0989874005317688,0.025881700217723846,-0.030627481639385223,-0.08711615204811096}; 

 const float b1[64]  = {0.1017126515507698,0.08023287355899811,0.04727460443973541,0.07205776870250702,0.12446264922618866,0.09371679276227951,-0.14002041518688202,0.131517693400383,-0.03815450519323349,0.13404013216495514,0.18770179152488708,0.018306706100702286,0.13098420202732086,0.05790445953607559,0.12751427292823792,0.10392511636018753,-0.0596449039876461,0.12142447382211685,0.04129311069846153,-0.056752365082502365,0.14093787968158722,0.10616058856248856,0.09685344994068146,0.12596702575683594,0.049008917063474655,0.09681222587823868,0.10010141134262085,-0.09440650790929794,0.12273608893156052,0.0952892005443573,0.10957862436771393,0.08617323637008667,0.07258430123329163,0.06460150331258774,0.11416099220514297,0.13418105244636536,0.0049308896996080875,0.07295946776866913,0.02095068246126175,-0.19368192553520203,0.10516998916864395,0.1223263069987297,0.0654696375131607,-0.02296445332467556,-0.04741375520825386,0.10495603829622269,0.13684752583503723,0.1224956065416336,0.10115793347358704,0.10109703987836838,-0.021025920286774635,0.10054231435060501,-0.0031952105928212404,0.028844282031059265,0.09200569242238998,0.10327889770269394,0.08961695432662964,0.12222196906805038,-0.015525657683610916,0.12909656763076782,0.06183582916855812,0.1316225826740265,0.09903471916913986,0.13173671066761017}; 

 const float w2[64]  = {-0.17561767995357513,-0.02744191512465477,0.44526007771492004,0.17693112790584564,-0.33530768752098083,0.12822550535202026,-0.15046970546245575,0.22470717132091522,0.49936696887016296,-0.49830377101898193,-0.22685201466083527,0.28647875785827637,-0.10206597298383713,-0.19208385050296783,0.7461684942245483,-0.13417431712150574,-0.19368071854114532,-0.4044952392578125,0.41791465878486633,0.18677249550819397,-0.5818291902542114,0.2440883070230484,0.18655350804328918,-0.09763585776090622,0.1560460478067398,0.059032171964645386,0.24333591759204865,-0.20175082981586456,-0.4712385833263397,0.42646732926368713,-0.34114891290664673,-0.19403769075870514,0.1552741825580597,-0.16031475365161896,-0.08389534056186676,0.5190001726150513,-0.31666627526283264,-0.22998368740081787,0.41996535658836365,0.002100691432133317,0.4251883029937744,0.1483931988477707,0.18240141868591309,0.25256600975990295,0.23770877718925476,0.33974596858024597,-0.4332953989505768,0.27915921807289124,0.17384101450443268,0.17355409264564514,-0.23084251582622528,-0.0464673787355423,-0.24174468219280243,0.2610339820384979,0.2575224041938782,-0.3403184711933136,0.17723535001277924,-0.3881048560142517,-0.08007217198610306,-0.096737340092659,0.14214228093624115,-0.5533791780471802,-0.05658259987831116,-0.5405775904655457}; 

 const float b2[1]   = {0.0961204245686531}; 

 