 const float w1[512] = {-0.15808983147144318,0.7848854064941406,0.4582943320274353,0.8836826086044312,0.13683155179023743,-0.010157328099012375,-0.23151330649852753,-0.12468481063842773,-3.4660232067108154,0.9808293581008911,-0.36957260966300964,0.9799418449401855,-0.17512963712215424,0.06881499290466309,-0.0442507266998291,0.13997440040111542,0.15739566087722778,-0.05587992072105408,0.018096357583999634,0.03303946554660797,-0.11212743818759918,0.04402939975261688,0.11717330664396286,-0.018975935876369476,0.4732828438282013,-0.4001609683036804,0.1667318195104599,-0.649478554725647,-0.04650386795401573,-0.0019286759197711945,0.0019184582633897662,-0.1193905621767044,1.0292452573776245,-0.3312358558177948,-0.551328182220459,-0.2414064258337021,0.07461482286453247,0.06755361706018448,0.13305264711380005,-0.05424501746892929,0.37404099106788635,-0.34270602464675903,0.3992368280887604,-0.511969268321991,-0.05219302698969841,-0.1133861243724823,0.11357807368040085,0.01632622443139553,0.0777701586484909,-0.5184500217437744,-1.1617432832717896,-0.7067735195159912,0.11026950925588608,0.008487765677273273,0.3200882375240326,0.35177353024482727,0.16906511783599854,0.3147922456264496,0.5826621651649475,0.5134752988815308,-0.2507481276988983,-0.19256442785263062,0.3179202973842621,0.3933736979961395,-1.0894274711608887,0.5525339841842651,-0.04248162358999252,0.8122184872627258,0.0648442879319191,-0.03311857581138611,-0.13185390830039978,-0.2113770991563797,0.5905030965805054,-0.4068138897418976,0.2275262176990509,-0.6047804355621338,0.2215466946363449,0.08185987919569016,-0.4309259057044983,-0.3559274971485138,-2.742579698562622,1.0537418127059937,0.06236656382679939,0.8656986355781555,0.11047064512968063,0.026844020932912827,-0.0967259407043457,-0.15105515718460083,-0.3378743529319763,-0.3499310612678528,-0.18577700853347778,-0.06526739150285721,-0.46167314052581787,-0.6495546102523804,-0.030201174318790436,0.29751044511795044,-0.6283087134361267,0.9392414093017578,0.8764991164207458,1.3036925792694092,-0.4784035086631775,-0.4547788202762604,0.045472562313079834,0.04807879403233528,1.1884185075759888,-0.5901564359664917,1.3916982412338257,-0.8200777173042297,0.2731350362300873,0.1318393498659134,-0.11048954725265503,0.06166878715157509,0.3870357573032379,0.39324134588241577,-0.7661347985267639,0.6944960355758667,0.10157912969589233,0.12236274033784866,0.6059688329696655,0.48714807629585266,-1.2423113584518433,0.892236590385437,-0.6237879395484924,0.8252286911010742,-0.48101723194122314,-0.42057016491889954,0.5882242321968079,0.2110719233751297,-1.3313404321670532,1.0666238069534302,-1.3892196416854858,1.1539409160614014,-0.04188299924135208,-0.04351959377527237,0.04153263941407204,0.004391335882246494,-3.540907382965088,1.246801495552063,-0.6101458668708801,1.2378284931182861,0.03424650803208351,-0.0327206552028656,-0.07593971490859985,0.05348372086882591,-1.8690322637557983,0.6820225715637207,-1.7430771589279175,0.6525319218635559,0.08403206616640091,-0.14498566091060638,-0.02843543514609337,0.25067031383514404,0.4776214361190796,0.8629335761070251,1.4716848134994507,1.3228437900543213,0.13054603338241577,-0.14764924347400665,-0.13933007419109344,0.0001600442483322695,0.09608624130487442,-0.11020348966121674,-1.8616914749145508,-0.37459588050842285,-0.045135609805583954,0.2138085514307022,-0.038205746561288834,0.1585780531167984,-1.0726280212402344,-0.10056918114423752,0.031464092433452606,-0.16098354756832123,-0.0973387062549591,-0.11031881719827652,0.10371015965938568,-0.06764119118452072,-3.1439242362976074,0.4334608316421509,-0.16618552803993225,0.7159480452537537,0.04439975321292877,0.12840917706489563,-0.044489629566669464,-0.1324239820241928,-1.6719260215759277,1.259953498840332,0.19407930970191956,1.2068078517913818,-0.1168898195028305,-0.2936883270740509,-0.1255371868610382,-0.0762835443019867,-0.10099772363901138,0.7571547031402588,-0.4380466938018799,0.8047854900360107,0.15322750806808472,0.015897909179329872,0.09831314533948898,0.12491673231124878,-1.2246427536010742,0.0873035416007042,-0.007329211570322514,0.19335511326789856,-0.23236750066280365,-0.21736861765384674,-0.1895187497138977,0.044421516358852386,-0.06974106281995773,-0.38773980736732483,-2.052825450897217,-0.517232358455658,0.241782546043396,0.05236043408513069,0.12082650512456894,0.09013093262910843,0.10259398818016052,-0.822152316570282,-0.8435853719711304,-0.780870258808136,-0.05189082771539688,0.09583070129156113,0.054950229823589325,-0.16633711755275726,-0.12759122252464294,-0.8115997314453125,-0.17993220686912537,-1.066533088684082,0.36259138584136963,0.433280885219574,-0.2253614217042923,-0.28667792677879333,0.119839146733284,-0.821937084197998,-1.0968382358551025,-0.6498351097106934,0.3827708959579468,0.06988554447889328,-0.25457653403282166,-0.09098510444164276,-0.5773352384567261,0.6220149397850037,-1.0049850940704346,0.3988010287284851,0.4302719533443451,0.32753413915634155,-0.39400020241737366,-0.4676536023616791,-1.6153943538665771,0.8279526233673096,-1.9534106254577637,0.9678098559379578,-0.2607211172580719,-0.06571713089942932,0.08938290178775787,0.12278753519058228,-1.5389142036437988,0.9706927537918091,-1.6915209293365479,0.9527118802070618,0.000774871208705008,0.03916541859507561,-0.03828931227326393,-0.08962901681661606,1.2394307851791382,-0.9127427339553833,-0.8211860656738281,-1.1990855932235718,-0.00201126909814775,0.059729453176259995,0.03732918202877045,0.15691092610359192,-0.28552934527397156,0.3540170192718506,0.6293447613716125,0.32560795545578003,0.001087395939975977,-0.10648497194051743,-0.21567659080028534,-0.09044763445854187,0.37259596586227417,-1.3840175867080688,-1.1941019296646118,-1.2637379169464111,-0.10175926238298416,0.16345447301864624,-0.3550271689891815,-0.25128328800201416,1.4642772674560547,-0.6572403311729431,1.4036210775375366,-0.7039477825164795,0.10411161184310913,0.02019290067255497,-0.05546809732913971,-0.1333744078874588,-0.1548413187265396,-0.11968037486076355,-1.9222391843795776,-0.2096024751663208,0.003998741041868925,0.0382625013589859,0.009948021732270718,-0.00465639540925622,-3.34087872505188,0.8611987829208374,-0.22551031410694122,0.6619014143943787,0.1438729465007782,0.12750045955181122,-0.09291984885931015,-0.14914950728416443,-2.860062837600708,1.5321741104125977,-0.8868826627731323,1.3688488006591797,-0.012210500426590443,-0.04778647795319557,-0.0054333629086613655,0.13947948813438416,0.08100071549415588,-0.5046052932739258,-0.6362131834030151,-0.7578639984130859,-0.031714726239442825,-0.01249787025153637,-0.05945105478167534,0.044692642986774445,-2.344329833984375,0.7612065076828003,-0.3362749516963959,0.6895882487297058,0.1035906970500946,0.05199166014790535,0.0868028774857521,0.12256985157728195,0.6897838711738586,-0.6708704233169556,0.5550991892814636,-0.32702887058258057,0.03901837021112442,0.014111067168414593,-0.10795354843139648,-0.09320265799760818,-0.31141993403434753,-0.2629930377006531,-0.6082614064216614,-0.30729207396507263,0.03313598036766052,-0.0037395120598375797,0.05234680697321892,-0.05812791734933853,-0.28733494877815247,0.060297608375549316,0.12988324463367462,0.13532066345214844,-0.12434583902359009,-0.4320792555809021,0.3565630316734314,0.36975693702697754,0.39791902899742126,-0.1474725753068924,0.4467364251613617,0.03880751505494118,-0.01917140744626522,-0.055302493274211884,0.0645764023065567,0.052466608583927155,-0.6326642036437988,-0.7653381824493408,-1.5564138889312744,-0.7514217495918274,0.03842690587043762,-0.09719661623239517,-0.0021141385659575462,-0.24687355756759644,1.553880214691162,-0.5243293642997742,0.13285428285598755,-0.5982370972633362,0.02549161948263645,-0.1074705421924591,0.006467347498983145,0.008322558365762234,-1.469628930091858,0.88370281457901,-1.3770804405212402,0.7250351309776306,0.1866648644208908,0.24760228395462036,0.1881643831729889,-0.1715947985649109,-1.8272508382797241,0.9047319293022156,0.3657451868057251,0.9689192771911621,0.2655409276485443,0.1831822395324707,-0.2889208495616913,-0.2576870918273926,0.6378871202468872,1.3154385089874268,1.1036853790283203,1.6659842729568481,0.14808736741542816,-0.2876588702201843,0.21019667387008667,0.21224841475486755,0.2522936761379242,-1.3139944076538086,-0.6035889983177185,-1.3473531007766724,0.14866052567958832,0.17690466344356537,-0.3045417070388794,-0.33260205388069153,-3.1440000534057617,0.7982944250106812,0.17828352749347687,0.7783872485160828,0.0782851129770279,0.11355387419462204,-0.13592283427715302,0.05424878001213074,1.8970130681991577,-0.4866313636302948,-0.3195543885231018,-0.7049800157546997,0.04321657866239548,-0.018412429839372635,0.19238623976707458,0.044760674238204956,-0.15847650170326233,0.8364940881729126,0.06205500662326813,0.6685518622398376,-0.0237855464220047,0.0794077143073082,-0.12872302532196045,-0.045194245874881744,-0.10202455520629883,-0.28042906522750854,-0.25282153487205505,-0.3743514120578766,0.009902887977659702,-0.10363579541444778,0.31411829590797424,-0.0032606078311800957,0.1072440817952156,-0.40520405769348145,-0.4625701308250427,-0.7124395370483398,0.015393770299851894,0.07894284278154373,0.016464443877339363,-0.008360897190868855,0.7232794165611267,0.872477114200592,-0.3593403398990631,1.1141453981399536,0.3990131616592407,0.367070734500885,0.008561805821955204,0.0161498561501503,-0.27741822600364685,-0.8811160922050476,-1.3605399131774902,-1.0101176500320435,0.24601256847381592,0.18194462358951569,-0.32253706455230713,-0.3898693323135376,-0.7529925107955933,1.0063241720199585,-0.8034305572509766,0.920592188835144,0.19003678858280182,-0.03821660578250885,0.12054810672998428,0.06054084002971649,-3.222594738006592,1.4166138172149658,-0.05230981484055519,1.2574089765548706,0.10863567888736725,-0.07302107661962509,0.0036986188497394323,-0.026125609874725342,0.963681697845459,-0.6228851675987244,-0.295425146818161,-0.9484786987304688,0.015788109973073006,-0.11417820304632187,0.007959386333823204,-0.11023187637329102,-0.45876315236091614,-0.12552762031555176,-2.012226104736328,-0.2693103551864624,0.2400103509426117,0.19166091084480286,0.21961791813373566,0.1364927738904953,-1.7388722896575928,1.0088768005371094,0.2927349805831909,1.589565634727478,-0.13114126026630402,-0.09724996238946915,0.03444356471300125,0.03748060390353203}; 

 const float b1[64]  = {-0.4004409909248352,0.05322382226586342,-0.17860253155231476,-0.267601877450943,-0.30165860056877136,-0.3079419732093811,-0.3369778096675873,-0.46130627393722534,-0.6786361932754517,-0.2509298026561737,0.1484328955411911,-0.38362225890159607,-0.058619461953639984,-0.25530532002449036,-0.22815166413784027,-0.20720961689949036,-0.39563536643981934,0.11542617529630661,-0.2701457142829895,0.03163125738501549,0.21976326406002045,-0.47454413771629333,0.10414927452802658,-0.10979217290878296,-0.4720793664455414,-0.3554271459579468,0.12969866394996643,-0.40344706177711487,-0.2406597137451172,-0.32782676815986633,-0.17549645900726318,-0.1868450790643692,-0.42770665884017944,-0.05332878977060318,-0.4740993082523346,0.06386219710111618,-0.23433639109134674,-0.2274240404367447,0.06778331845998764,-0.22583188116550446,-0.23116713762283325,-0.4404850900173187,-0.3806864619255066,-0.31570106744766235,-0.40493258833885193,-0.2653473913669586,-0.3013244867324829,-0.27522706985473633,-0.4804656207561493,0.07501046359539032,-0.21720725297927856,-0.07902940362691879,0.16099493205547333,0.22042295336723328,-0.2738116383552551,-0.24859337508678436,-0.27131277322769165,-0.11803949624300003,-0.08197719603776932,-0.564114511013031,0.14635109901428223,-0.28013262152671814,-0.36219874024391174,-0.20013315975666046}; 

 const float w2[64]  = {-0.7520003318786621,-0.7589017152786255,-0.10550537705421448,-0.16636167466640472,0.012246823869645596,-0.5730825662612915,0.2987082004547119,-0.8381413221359253,-0.6212943196296692,-0.3433893918991089,-0.42849233746528625,-0.6165028810501099,-0.27028149366378784,-0.930986225605011,0.5431401133537292,-0.8517757058143616,1.6511425971984863,-1.0700372457504272,1.9823273420333862,-0.2570367753505707,0.19977976381778717,-0.2327404022216797,-0.41503235697746277,-0.21967235207557678,0.7179404497146606,-0.29473310708999634,0.22430235147476196,0.09607899934053421,-0.395871102809906,0.6152496933937073,0.9557978510856628,2.1323370933532715,2.014378547668457,0.302192360162735,-0.41648465394973755,0.5987119674682617,-0.9542094469070435,0.21766410768032074,-0.601325511932373,-1.3115538358688354,0.16074275970458984,-0.6184136271476746,-0.47331205010414124,0.11373936384916306,-0.7877939939498901,-0.2183268815279007,0.43336254358291626,0.34445253014564514,1.822689414024353,-0.27584564685821533,-0.9961072206497192,0.628894567489624,-0.5062286853790283,0.29752588272094727,0.6600974798202515,-0.15687677264213562,0.058333683758974075,0.2283473163843155,0.4790387451648712,1.2578449249267578,-0.9901497960090637,-0.05986950546503067,0.3964836001396179,-0.21622662246227264}; 

 const float b2[1]   = {0.3086252510547638}; 

 