const float w1 [512] = 
{1.6545090675354004,
 -0.5420804023742676,
 -0.026007145643234253,
 -1.0039348602294922,
 0.061773210763931274,
 -0.20450954139232635,
 0.453389972448349,
 -0.48610466718673706,
 1.768554449081421,
 -0.5042968392372131,
 0.24368269741535187,
 -1.004984974861145,
 -0.002856530249118805,
 -0.11679591983556747,
 0.596015453338623,
 -0.6181254386901855,
 -1.9087177515029907,
 0.4691852629184723,
 -0.24495179951190948,
 0.8507364392280579,
 -0.14723223447799683,
 0.18077698349952698,
 -0.740506649017334,
 0.421231746673584,
 1.7539180517196655,
 -0.4937456250190735,
 0.037550777196884155,
 -0.8859257698059082,
 0.08223649859428406,
 -0.2525705397129059,
 0.532800018787384,
 -0.5901854038238525,
 1.9744079113006592,
 -0.47727444767951965,
 0.2202180027961731,
 -0.8731326460838318,
 0.058040350675582886,
 0.023016685619950294,
 0.5577912926673889,
 -0.5418002009391785,
 1.8396196365356445,
 -0.2520841062068939,
 0.11595241725444794,
 -0.8665566444396973,
 0.11784997582435608,
 -0.2269224375486374,
 0.7323468327522278,
 -0.6693212389945984,
 2.0068302154541016,
 -0.5849717259407043,
 0.04010102525353432,
 -0.7660700082778931,
 0.1342095583677292,
 -0.06590462476015091,
 0.6113994121551514,
 -0.5911912322044373,
 1.8435649871826172,
 -0.4463162422180176,
 -0.08677911013364792,
 -0.7440573573112488,
 -0.17628628015518188,
 -0.1298268586397171,
 0.5746214985847473,
 -0.5586791038513184,
 1.896957516670227,
 -0.5455371737480164,
 0.2853291928768158,
 -0.826325535774231,
 -0.13981080055236816,
 -0.09020472317934036,
 0.5957484245300293,
 -0.525993824005127,
 1.618178367614746,
 -0.4395301938056946,
 0.0981387048959732,
 -0.921686053276062,
 -0.1420651227235794,
 -0.16836266219615936,
 0.5769437551498413,
 -0.5573921799659729,
 -1.8970547914505005,
 0.5235320329666138,
 -0.279744029045105,
 0.9418134689331055,
 -0.07890120148658752,
 0.1039317175745964,
 -0.6025367379188538,
 0.49636998772621155,
 -1.8589427471160889,
 0.6375558972358704,
 -0.18403321504592896,
 0.7827396392822266,
 0.025099895894527435,
 0.11318742483854294,
 -0.7441186308860779,
 0.6909859776496887,
 1.779017448425293,
 -0.4223043620586395,
 -0.0664772167801857,
 -1.0053949356079102,
 -0.003556200535967946,
 -0.18619471788406372,
 0.6296083331108093,
 -0.5931022763252258,
 1.6752272844314575,
 -0.551770031452179,
 0.09172617644071579,
 -0.8142820596694946,
 -0.009965784847736359,
 -0.1780608743429184,
 0.3869348168373108,
 -0.5926544070243835,
 1.8308008909225464,
 -0.3102169930934906,
 0.09743893146514893,
 -0.8858464360237122,
 0.21872472763061523,
 -0.3097423315048218,
 0.5475842952728271,
 -0.6382225155830383,
 -1.8170554637908936,
 0.5224250555038452,
 -0.3286294639110565,
 0.8779604434967041,
 -0.23848147690296173,
 0.19357305765151978,
 -0.6435734033584595,
 0.42422565817832947,
 1.800183892250061,
 -0.5556994080543518,
 0.0874565988779068,
 -0.8105929493904114,
 0.22146651148796082,
 -0.16441917419433594,
 0.6689106225967407,
 -0.4202042520046234,
 1.7656546831130981,
 -0.36876681447029114,
 0.3284168541431427,
 -1.0781891345977783,
 -0.029691485688090324,
 -0.06608279049396515,
 0.5856700539588928,
 -0.6353702545166016,
 -1.8717585802078247,
 0.5289354920387268,
 -0.4097907543182373,
 0.9425182938575745,
 -0.0016781514277681708,
 0.09437822550535202,
 -0.6581863760948181,
 0.3712994456291199,
 1.627105712890625,
 -0.5025771260261536,
 -0.06362368911504745,
 -0.8603312373161316,
 0.07744532078504562,
 -0.282333105802536,
 0.5210840106010437,
 -0.4508419632911682,
 1.7791212797164917,
 -0.3575485050678253,
 0.1462511271238327,
 -0.7937244772911072,
 0.007963075302541256,
 -0.046983588486909866,
 0.6582168340682983,
 -0.39600980281829834,
 -1.8249270915985107,
 0.48904722929000854,
 -0.3151240348815918,
 0.6645185351371765,
 -0.0016736683901399374,
 0.07066735625267029,
 -0.7713340520858765,
 0.3106018602848053,
 -1.8255436420440674,
 0.5978721976280212,
 -0.30806997418403625,
 0.8852295279502869,
 -0.14887100458145142,
 0.08822619169950485,
 -0.6716256737709045,
 0.4788622260093689,
 -1.9292439222335815,
 0.4989832937717438,
 -0.30454182624816895,
 0.784686267375946,
 -0.05439219996333122,
 0.13793261349201202,
 -0.6175103187561035,
 0.6834450364112854,
 -2.0159106254577637,
 0.41479259729385376,
 -0.20947076380252838,
 1.0321587324142456,
 -0.08495151996612549,
 0.24264350533485413,
 -0.6439142227172852,
 0.36267027258872986,
 1.9306446313858032,
 -0.31393980979919434,
 0.08965504169464111,
 -0.7477403879165649,
 0.0878220945596695,
 -0.1406090259552002,
 0.7200666666030884,
 -0.6270379424095154,
 1.7519651651382446,
 -0.5302545428276062,
 0.3508949279785156,
 -0.6617128849029541,
 0.10370826721191406,
 -0.09208622574806213,
 0.55241459608078,
 -0.5259524583816528,
 1.660662293434143,
 -0.48731833696365356,
 0.012511060573160648,
 -0.944472074508667,
 -0.05403861775994301,
 -0.32958710193634033,
 0.5219061374664307,
 -0.502130389213562,
 -1.8804253339767456,
 0.46259766817092896,
 -0.2808673679828644,
 0.8496774435043335,
 -0.13586805760860443,
 -0.02713000401854515,
 -0.6549792289733887,
 0.6303810477256775,
 -2.010544538497925,
 0.28299710154533386,
 -0.2946019172668457,
 0.8166372179985046,
 0.04194170981645584,
 0.13758164644241333,
 -0.6927906274795532,
 0.5406884551048279,
 -1.8938720226287842,
 0.4592418968677521,
 -0.15640166401863098,
 0.8939415216445923,
 -0.1372450590133667,
 0.16044668853282928,
 -0.5122094750404358,
 0.39927974343299866,
 -1.6751266717910767,
 0.5124087929725647,
 -0.41305193305015564,
 0.8266198635101318,
 -0.2802143394947052,
 0.16931529343128204,
 -0.6787092685699463,
 0.4969783425331116,
 1.8465092182159424,
 -0.5388490557670593,
 0.25439900159835815,
 -0.859748899936676,
 -0.004389673937112093,
 -0.142709881067276,
 0.6170881986618042,
 -0.6576307415962219,
 -1.7960196733474731,
 0.4551471471786499,
 -0.30272161960601807,
 0.7298774123191833,
 -0.04829242452979088,
 0.05206248536705971,
 -0.6699207425117493,
 0.5941779017448425,
 -1.75899338722229,
 0.38483747839927673,
 -0.28515270352363586,
 0.7289974093437195,
 -0.08719579130411148,
 0.12524928152561188,
 -0.6000889539718628,
 0.5564227104187012,
 1.7803319692611694,
 -0.509553849697113,
 0.24593724310398102,
 -0.8386909365653992,
 0.20258170366287231,
 -0.25484806299209595,
 0.5175134539604187,
 -0.5486748814582825,
 1.7687063217163086,
 -0.4235974848270416,
 0.09778028726577759,
 -0.9372272491455078,
 0.04322660341858864,
 -0.34260159730911255,
 0.48805859684944153,
 -0.4672628939151764,
 -1.8840714693069458,
 0.4117445647716522,
 -0.3383715748786926,
 0.9142221212387085,
 -0.1790802776813507,
 0.23497316241264343,
 -0.6292100548744202,
 0.5656689405441284,
 -1.6982086896896362,
 0.3088371455669403,
 -0.16286608576774597,
 1.0236104726791382,
 -0.0011858274228870869,
 0.18018671870231628,
 -0.6807434558868408,
 0.4191184341907501,
 -1.7843732833862305,
 0.5013421773910522,
 -0.28007006645202637,
 1.0072412490844727,
 -0.17016319930553436,
 0.1309923529624939,
 -0.8321724534034729,
 0.5901402831077576,
 -1.7462737560272217,
 0.6848646402359009,
 -0.20846866071224213,
 1.0306649208068848,
 -0.10904140025377274,
 0.05901166424155235,
 -0.7440540790557861,
 0.577049732208252,
 -1.8431103229522705,
 0.26771095395088196,
 -0.30048659443855286,
 0.9179726839065552,
 -0.10192801803350449,
 0.258497416973114,
 -0.46362757682800293,
 0.474597692489624,
 1.921589970588684,
 -0.4849671423435211,
 0.2435063123703003,
 -0.6905949711799622,
 -0.09659331291913986,
 -0.212874174118042,
 0.597377359867096,
 -0.7212692499160767,
 1.8313729763031006,
 -0.46618548035621643,
 0.22811034321784973,
 -0.9020010232925415,
 0.22649502754211426,
 -0.09466267377138138,
 0.48312920331954956,
 -0.6262157559394836,
 -1.841822862625122,
 0.4297005534172058,
 -0.3133336007595062,
 0.6593735814094543,
 0.02146903984248638,
 0.0750390961766243,
 -0.7891725897789001,
 0.4328031837940216,
 1.777878999710083,
 -0.4758506417274475,
 0.1604318767786026,
 -0.9822241067886353,
 0.22654373943805695,
 -0.3075772821903229,
 0.6651049256324768,
 -0.5700713396072388,
 1.7495955228805542,
 -0.29598283767700195,
 -0.2502083480358124,
 -0.790723443031311,
 0.008759863674640656,
 0.06519278138875961,
 0.6403974294662476,
 -0.4329199492931366,
 1.7823213338851929,
 -0.5849807262420654,
 -0.14076723158359528,
 -0.8226478099822998,
 -0.0005025859572924674,
 -0.08854097872972488,
 0.5121484398841858,
 -0.4385887384414673,
 1.9588918685913086,
 -0.5238927602767944,
 0.2912013828754425,
 -0.7564014792442322,
 -0.16478216648101807,
 -0.20479407906532288,
 0.5802494287490845,
 -0.6951000690460205,
 1.8241245746612549,
 -0.2459016740322113,
 0.16174456477165222,
 -0.743855357170105,
 -0.22956550121307373,
 -0.15719784796237946,
 0.6702396869659424,
 -0.6286566257476807,
 -1.831429123878479,
 0.3057231903076172,
 -0.22523410618305206,
 0.9219251871109009,
 0.07322753220796585,
 0.017967229709029198,
 -0.7482386231422424,
 0.5035028457641602,
 -1.4048423767089844,
 0.3291381299495697,
 -0.05473359674215317,
 0.8016663789749146,
 -0.19336813688278198,
 0.16601529717445374,
 -0.5007391571998596,
 0.5205797553062439,
 1.7787165641784668,
 -0.5132533311843872,
 0.08157644420862198,
 -0.9094058871269226,
 -0.07484038174152374,
 -0.044064801186323166,
 0.5349596738815308,
 -0.39211928844451904,
 -1.8728560209274292,
 0.48079317808151245,
 -0.2510142922401428,
 0.7940562963485718,
 0.043197307735681534,
 0.038546618074178696,
 -0.7431381940841675,
 0.5926381349563599,
 -1.7962234020233154,
 0.4584469199180603,
 -0.377186119556427,
 0.9697818160057068,
 0.039416417479515076,
 0.019733944907784462,
 -0.6811856627464294,
 0.5470241904258728,
 1.6529395580291748,
 -0.4240438938140869,
 -0.0398416705429554,
 -0.9220848083496094,
 -0.04661809280514717,
 -0.08791786432266235,
 0.4769815504550934,
 -0.3317638635635376,
 1.6191210746765137,
 -0.53315269947052,
 0.19103673100471497,
 -0.8465546369552612,
 -0.03265494853258133,
 -0.10346068441867828,
 0.5441551208496094,
 -0.5976820588111877,
 -1.8846498727798462,
 0.7366882562637329,
 -0.11023443937301636,
 0.9951368570327759,
 -0.025226309895515442,
 0.1434350609779358,
 -0.6913298964500427,
 0.5893427729606628,
 -1.858344316482544,
 0.6720223426818848,
 -0.1334581971168518,
 0.7729175090789795,
 -0.1178397461771965,
 -0.07596217095851898,
 -0.7735520005226135,
 0.5380050539970398,
 1.6736693382263184,
 -0.37609750032424927,
 0.19246335327625275,
 -0.7952902913093567,
 0.02258993685245514,
 -0.15133967995643616,
 0.7274772524833679,
 -0.44102388620376587,
 1.8932294845581055,
 -0.6170200109481812,
 0.20504321157932281,
 -0.652832567691803,
 -0.06240354850888252,
 -0.28101304173469543,
 0.6337348818778992,
 -0.389555960893631,
 1.6451696157455444,
 -0.5225509405136108,
 0.1502663940191269,
 -0.9429352283477783,
 -0.12084260582923889,
 -0.21989548206329346,
 0.4506421387195587,
 -0.5732792019844055,
 -2.0132853984832764,
 0.456816166639328,
 -0.33840084075927734,
 0.7080525159835815,
 -0.044591497629880905,
 0.3674352765083313,
 -0.7787377238273621,
 0.5436013340950012,
 -1.9277353286743164,
 0.39619413018226624,
 -0.274202436208725,
 0.864084005355835,
 -0.06082763150334358,
 0.259918212890625,
 -0.5987564325332642,
 0.43848565220832825};


const float b1 [64] = {

0.08140917122364044,
 0.11848665028810501,
 0.15377309918403625,
 0.10527676343917847,
 0.12760044634342194,
 0.12767727673053741,
 0.1310056746006012,
 0.08634573966264725,
 0.11726228892803192,
 0.0727032795548439,
 0.15308475494384766,
 0.13180749118328094,
 0.09634694457054138,
 0.08248107880353928,
 0.12627975642681122,
 0.15618914365768433,
 0.1320183277130127,
 0.11445710062980652,
 0.15772658586502075,
 0.07299544662237167,
 0.11788250505924225,
 0.12253310531377792,
 0.15118376910686493,
 0.15527912974357605,
 0.14524242281913757,
 0.14057762920856476,
 0.130122110247612,
 0.07532085478305817,
 0.14588071405887604,
 0.1540002077817917,
 0.14107069373130798,
 0.1311263144016266,
 0.1324879229068756,
 0.12677831947803497,
 0.13610456883907318,
 0.126817524433136,
 0.09795261919498444,
 0.1321551501750946,
 0.09509903937578201,
 0.1606728434562683,
 0.1376466155052185,
 0.1193038746714592,
 0.12542128562927246,
 0.12500375509262085,
 0.12322067469358444,
 0.13509756326675415,
 0.08077797293663025,
 0.0863618478178978,
 0.12903323769569397,
 0.10169367492198944,
 0.132676899433136,
 0.07195952534675598,
 0.09542632102966309,
 0.11242306977510452,
 0.1506345272064209,
 0.07688865810632706,
 0.08789592981338501,
 0.1363321840763092,
 0.14234723150730133,
 0.11257757246494293,
 0.12664389610290527,
 0.07878394424915314,
 0.13723638653755188,
 0.1447465419769287};


 const float w2[64] = {

 0.34430623054504395,
 0.4775196313858032,
 -0.40431126952171326,
 0.5052652955055237,
 0.4099799394607544,
 0.3703039884567261,
 0.4290957450866699,
 0.42969852685928345,
 0.40390917658805847,
 0.31669580936431885,
 -0.5976201295852661,
 -0.37334516644477844,
 0.3815403878688812,
 0.38280436396598816,
 0.48375168442726135,
 -0.43199607729911804,
 0.4476414918899536,
 0.3559933304786682,
 -0.5395488142967224,
 0.2878122627735138,
 0.46259963512420654,
 -0.324150025844574,
 -0.3623623847961426,
 -0.5095379948616028,
 -0.3934880197048187,
 0.5298904776573181,
 0.3812786042690277,
 0.3464181423187256,
 -0.3598228991031647,
 -0.38659724593162537,
 -0.5890863537788391,
 -0.3047281503677368,
 0.5879700779914856,
 -0.336683452129364,
 -0.43285489082336426,
 0.4056125283241272,
 0.37058109045028687,
 -0.3463781177997589,
 -0.34050679206848145,
 -0.47193506360054016,
 -0.40497252345085144,
 -0.36975574493408203,
 0.5168141722679138,
 0.38129475712776184,
 -0.34820112586021423,
 0.42807427048683167,
 0.3940401077270508,
 0.4284665882587433,
 0.614830732345581,
 0.40855953097343445,
 -0.3772932291030884,
 -0.3921196758747101,
 0.3849714398384094,
 -0.3697774410247803,
 -0.6453091502189636,
 0.40277817845344543,
 0.2933710217475891,
 -0.4410277009010315,
 -0.4094262719154358,
 0.39074888825416565,
 0.45587071776390076,
 0.32895946502685547,
 -0.4072417914867401,
 -0.43140703439712524};


 const float b2[1] = {

 0.05019655078649521};
