const float w1[512] =  {1.7789970636367798, -0.5352845788002014, -0.17161795496940613, -1.1940863132476807, -0.3584037125110626, -0.15431280434131622, 0.29605555534362793, -0.4281761646270752, 1.9276577234268188, -0.493468314409256, 0.11860421299934387, -1.206626057624817, -0.4090488851070404, -0.062478676438331604, 0.45022040605545044, -0.5563172101974487, -2.1060009002685547, 0.45409470796585083, -0.1531849056482315, 1.0395355224609375, 0.2263859659433365, 0.1234113797545433, -0.6254713535308838, 0.3547112047672272, 1.9122024774551392, -0.4834672212600708, -0.08685637265443802, -1.0837000608444214, -0.3232940137386322, -0.19922591745853424, 0.38851839303970337, -0.5281232595443726, 2.1327757835388184, -0.46492263674736023, 0.09403971582651138, -1.0722613334655762, -0.3491511940956116, 0.07580757141113281, 0.41185396909713745, -0.4781610667705536, 1.9984670877456665, -0.24293510615825653, -0.011713353917002678, -1.0676286220550537, -0.290321946144104, -0.17316007614135742, 0.5854336023330688, -0.6070217490196228, 2.17045521736145, -0.5754683613777161, -0.0816480815410614, -0.9672687649726868, -0.2684430778026581, -0.008901401422917843, 0.469257652759552, -0.5270448923110962, 1.981566309928894, -0.4431273639202118, -0.21829526126384735, -0.9384080171585083, -0.5820481777191162, -0.0851285457611084, 0.43231886625289917, -0.5031476020812988, 2.0527517795562744, -0.5322631001472473, 0.1585065871477127, -1.0257928371429443, -0.5471537709236145, -0.03909934684634209, 0.4487740695476532, -0.46381986141204834, 1.7191771268844604, -0.43717247247695923, -0.06032910570502281, -1.1153979301452637, -0.5702774524688721, -0.12185534089803696, 0.4107329845428467, -0.49877026677131653, -2.090327501296997, 0.5051822066307068, -0.18894211947917938, 1.129953384399414, 0.29368358850479126, 0.04536927863955498, -0.48913681507110596, 0.4309748411178589, -2.046279191970825, 0.6233605742454529, -0.08546704053878784, 0.9737516641616821, 0.4018247127532959, 0.060285381972789764, -0.6271571516990662, 0.6276676058769226, 1.925706386566162, -0.41406044363975525, -0.2047492116689682, -1.1982824802398682, -0.41947734355926514, -0.13953797519207, 0.4752308130264282, -0.5287464261054993, 1.8035237789154053, -0.5478756427764893, -0.04453585669398308, -1.0072343349456787, -0.4201206862926483, -0.13400842249393463, 0.23879161477088928, -0.527777910232544, 1.9965916872024536, -0.2975144684314728, -0.021572360768914223, -1.0869578123092651, -0.18258999288082123, -0.25300702452659607, 0.4064140021800995, -0.5763231515884399, -2.016185998916626, 0.5069501996040344, -0.23941053450107574, 1.0662137269973755, 0.13283443450927734, 0.13645383715629578, -0.530260443687439, 0.35823768377304077, 1.9688340425491333, -0.5447400808334351, -0.03009350225329399, -1.0105476379394531, -0.1785207837820053, -0.10591723769903183, 0.5292040109634399, -0.3588220179080963, 1.9127001762390137, -0.3567870557308197, 0.19101449847221375, -1.2746554613113403, -0.44761988520622253, -0.014372410252690315, 0.4282985031604767, -0.5733367204666138, -2.06410813331604, 0.5112570524215698, -0.31786298751831055, 1.130998134613037, 0.3719440996646881, 0.03638533875346184, -0.5436671376228333, 0.3056080639362335, 1.7478783130645752, -0.5075058937072754, -0.2041446566581726, -1.0553008317947388, -0.33386898040771484, -0.2440350204706192, 0.36551153659820557, -0.3947743773460388, 1.9419102668762207, -0.3459431827068329, 0.024090683087706566, -0.9941010475158691, -0.39534759521484375, 0.00916669238358736, 0.5153477191925049, -0.3313213884830475, -1.9861537218093872, 0.48524045944213867, -0.1956963688135147, 0.8559907674789429, 0.3959636986255646, 0.015314063057303429, -0.6383726596832275, 0.2567196488380432, -2.0249383449554443, 0.5835187435150146, -0.21793435513973236, 1.074052095413208, 0.22366218268871307, 0.03104601614177227, -0.5575618743896484, 0.4127592444419861, -2.1306300163269043, 0.48327308893203735, -0.2186632603406906, 0.9718167781829834, 0.31396791338920593, 0.08069612830877304, -0.5068665742874146, 0.6194984912872314, -2.205204725265503, 0.4029892683029175, -0.11280912905931473, 1.22379732131958, 0.2886214852333069, 0.18595999479293823, -0.5295732021331787, 0.2994902729988098, 2.1062426567077637, -0.3003621995449066, -0.020425308495759964, -0.9456741809844971, -0.3046485185623169, -0.08760145306587219, 0.5893784761428833, -0.5647903680801392, 1.9149144887924194, -0.5210820436477661, 0.2282305806875229, -0.8621523380279541, -0.3007996678352356, -0.03534741699695587, 0.40872666239738464, -0.4613148868083954, 1.7691205739974976, -0.4808942973613739, -0.1375841647386551, -1.131630301475525, -0.4741922914981842, -0.2813183069229126, 0.36566776037216187, -0.4425031244754791, -2.072920799255371, 0.4492376148700714, -0.18367913365364075, 1.0393928289413452, 0.24226245284080505, -0.08452266454696655, -0.536472737789154, 0.5657500624656677, -2.204885244369507, 0.270685613155365, -0.20297475159168243, 1.0077046155929565, 0.4108128249645233, 0.08133352547883987, -0.5825322866439819, 0.47921326756477356, -2.0937211513519287, 0.4449034631252289, -0.06969684362411499, 1.0822792053222656, 0.2292626053094864, 0.10179722309112549, -0.40415579080581665, 0.33626601099967957, -1.8396986722946167, 0.5071943402290344, -0.2934598922729492, 1.0133552551269531, 0.11955973505973816, 0.11286351829767227, -0.5435765981674194, 0.44571346044540405, 2.02518630027771, -0.5260018110275269, 0.147617369890213, -1.0570234060287476, -0.3950672149658203, -0.08599189668893814, 0.485830157995224, -0.5960818529129028, -1.9743539094924927, 0.4425297677516937, -0.19810952246189117, 0.9192951917648315, 0.33387503027915955, -0.003979141358286142, -0.5496395826339722, 0.5391566753387451, -1.955195665359497, 0.3707573711872101, -0.19353222846984863, 0.9179703593254089, 0.2842303514480591, 0.06722463667392731, -0.4876521825790405, 0.4915809631347656, 1.9436272382736206, -0.5011342167854309, 0.12285064160823822, -1.0395283699035645, -0.20216767489910126, -0.19894978404045105, 0.37339073419570923, -0.4856509268283844, 1.9109852313995361, -0.4162736237049103, -0.043199487030506134, -1.1326743364334106, -0.3735109865665436, -0.29339513182640076, 0.3328491449356079, -0.40478408336639404, -2.057502269744873, 0.39941561222076416, -0.22917497158050537, 1.102650761604309, 0.20719590783119202, 0.18201857805252075, -0.5051475167274475, 0.5123665928840637, -1.8426960706710815, 0.3133971095085144, -0.0359109565615654, 1.2206321954727173, 0.40660518407821655, 0.12915487587451935, -0.5383878946304321, 0.36805710196495056, -1.9794752597808838, 0.48562362790107727, -0.18761759996414185, 1.1961643695831299, 0.20310987532138824, 0.07483343034982681, -0.717587411403656, 0.5244632959365845, -1.9411916732788086, 0.6692777276039124, -0.11469733715057373, 1.2199487686157227, 0.26581010222435, 0.002977676223963499, -0.6285083889961243, 0.511051595211029, -2.0217201709747314, 0.2534239888191223, -0.19678890705108643, 1.1070191860198975, 0.2803603410720825, 0.2040427178144455, -0.34258177876472473, 0.42118528485298157, 2.089202404022217, -0.47281429171562195, 0.12741748988628387, -0.8875676989555359, -0.4948421120643616, -0.15505561232566833, 0.45896902680397034, -0.66170334815979, 1.9873688220977783, -0.45727717876434326, 0.09877008199691772, -1.1005815267562866, -0.18381643295288086, -0.04008796066045761, 0.3339044749736786, -0.564631462097168, -2.0051047801971436, 0.42397165298461914, -0.19401277601718903, 0.8508021831512451, 0.41688448190689087, 0.019696425646543503, -0.6590155959129333, 0.37970101833343506, 1.9434177875518799, -0.464814156293869, 0.03968096151947975, -1.182761788368225, -0.17577297985553741, -0.2514221668243408, 0.523979663848877, -0.5104843378067017, 1.8798209428787231, -0.29464781284332275, -0.39572927355766296, -0.9842556118965149, -0.4079861044883728, 0.10405921190977097, 0.4873407185077667, -0.3749229907989502, 1.926179051399231, -0.5836269855499268, -0.2750241458415985, -1.0158710479736328, -0.4124847650527954, -0.04521157220005989, 0.36322665214538574, -0.3807823061943054, 2.137634038925171, -0.5103902220726013, 0.1853727400302887, -0.9505555629730225, -0.553935170173645, -0.14504626393318176, 0.44975441694259644, -0.633362889289856, 1.9722059965133667, -0.2348879724740982, 0.029035530984401703, -0.9431259632110596, -0.6402904391288757, -0.10865453630685806, 0.5202064514160156, -0.5686280727386475, -2.0212740898132324, 0.29322299361228943, -0.12938155233860016, 1.1132696866989136, 0.44573715329170227, -0.03677143529057503, -0.6354103684425354, 0.4404906630516052, -1.5661423206329346, 0.3439112603664398, 0.06044553965330124, 0.9965869188308716, 0.20664706826210022, 0.09649927914142609, -0.3587487041950226, 0.4734148681163788, 1.9212653636932373, -0.504061222076416, -0.0558435320854187, -1.1062415838241577, -0.4904707670211792, 0.0011383725795894861, 0.38086792826652527, -0.32666313648223877, -2.033019781112671, 0.4700031876564026, -0.1299603432416916, 0.9833855032920837, 0.44094333052635193, -0.01916833221912384, -0.6101029515266418, 0.5344833731651306, -1.9893649816513062, 0.4403001070022583, -0.28664347529411316, 1.157920241355896, 0.41197702288627625, -0.038898713886737823, -0.5674608945846558, 0.48231440782546997, 1.7797777652740479, -0.42293840646743774, -0.1778145432472229, -1.1156424283981323, -0.4585424065589905, -0.04608782008290291, 0.32854530215263367, -0.2675704061985016, 1.7629468441009521, -0.5369552969932556, 0.0528375469148159, -1.0424083471298218, -0.45189720392227173, -0.06197405606508255, 0.3859090507030487, -0.5404922366142273, -2.0803141593933105, 0.7212668657302856, -0.017587630078196526, 1.1841708421707153, 0.3477204144001007, 0.08806470781564713, -0.5773227214813232, 0.5244447588920593, -2.0563430786132812, 0.6562825441360474, -0.04209021478891373, 0.962179958820343, 0.2550641894340515, -0.13199558854103088, -0.6597625613212585, 0.4714013338088989, 1.8225127458572388, -0.3681659400463104, 0.05663352459669113, -0.9945404529571533, -0.39187026023864746, -0.0983240082859993, 0.5746703743934631, -0.37864091992378235, 2.061768054962158, -0.6065201163291931, 0.08876807987689972, -0.8494389057159424, -0.46120408177375793, -0.22564604878425598, 0.49473854899406433, -0.32758358120918274, 1.760911226272583, -0.5153577327728271, 0.005913867149502039, -1.128900170326233, -0.5394418239593506, -0.17069286108016968, 0.295806884765625, -0.510415256023407, -2.1837241649627686, 0.4441037178039551, -0.2269473522901535, 0.8984465003013611, 0.3410879969596863, 0.31105005741119385, -0.6560081839561462, 0.4911690652370453, -2.1175355911254883, 0.38375139236450195, -0.1794963926076889, 1.055606722831726, 0.310326486825943, 0.20445869863033295, -0.4862968325614929, 0.37609976530075073};

const float b1[64] =  {0.07673719525337219, 0.11090083420276642, 0.14384816586971283, 0.09849110245704651, 0.1175912544131279, 0.11488606035709381, 0.11999642848968506, 0.08215729892253876, 0.10801826417446136, 0.0736701563000679, 0.15023048222064972, 0.12295494228601456, 0.08916860073804855, 0.07851307839155197, 0.11671575903892517, 0.14674142003059387, 0.12039528787136078, 0.10564364492893219, 0.1537255346775055, 0.06454286724328995, 0.10850680619478226, 0.11517634987831116, 0.13798706233501434, 0.14843438565731049, 0.1371721774339676, 0.12929275631904602, 0.11694882065057755, 0.07514073699712753, 0.13500776886940002, 0.1442890614271164, 0.1367826610803604, 0.12018787860870361, 0.12185785174369812, 0.11702478677034378, 0.12757210433483124, 0.11493431031703949, 0.09158641844987869, 0.12344929575920105, 0.09357566386461258, 0.15358677506446838, 0.1282425969839096, 0.11082695424556732, 0.11636141687631607, 0.11427989602088928, 0.11793234199285507, 0.12342627346515656, 0.07727835327386856, 0.08071988075971603, 0.11896726489067078, 0.09493711590766907, 0.12300646305084229, 0.06816232949495316, 0.08961962908506393, 0.11017975956201553, 0.1489194929599762, 0.07426700741052628, 0.07320956140756607, 0.1286436766386032, 0.13213586807250977, 0.1038370430469513, 0.11562597006559372, 0.0756661593914032, 0.13389593362808228, 0.13819386065006256};

const float w2[64] = {0.31452134251594543, 0.45440471172332764, -0.37910518050193787, 0.47735533118247986, 0.39242252707481384, 0.338824063539505, 0.4078387916088104, 0.43035852909088135, 0.3946754038333893, 0.2940647006034851, -0.5793952345848083, -0.3521984815597534, 0.361515611410141, 0.3582812547683716, 0.44957783818244934, -0.4011533856391907, 0.41170501708984375, 0.3335282802581787, -0.5229141116142273, 0.25196534395217896, 0.4395315647125244, -0.29511556029319763, -0.33527785539627075, -0.49129801988601685, -0.3753686547279358, 0.5054337382316589, 0.3492699861526489, 0.32119494676589966, -0.33362439274787903, -0.3737860918045044, -0.5693739652633667, -0.2559719681739807, 0.5672829151153564, -0.30731457471847534, -0.4058370888233185, 0.37014278769493103, 0.34672480821609497, -0.3126230835914612, -0.3022805154323578, -0.44214025139808655, -0.375196248292923, -0.34243690967559814, 0.5029196739196777, 0.34695175290107727, -0.32023870944976807, 0.390193372964859, 0.37237349152565, 0.41394686698913574, 0.6084567904472351, 0.4021400213241577, -0.35999104380607605, -0.31574028730392456, 0.3733801543712616, -0.34319359064102173, -0.6279154419898987, 0.3856913149356842, 0.26347991824150085, -0.4224969744682312, -0.38385459780693054, 0.35752037167549133, 0.4398933947086334, 0.3121117651462555, -0.38149645924568176, -0.4120982885360718};

const float b2[1] = {0.042840033769607544};
