 const float w1[512] = {-1.6436141729354858,0.3836638629436493,-0.3252890110015869,-0.43269622325897217,-0.09373292326927185,0.3084878921508789,-0.06535062938928604,-0.15019920468330383,-1.6109058856964111,0.27883225679397583,-0.25705182552337646,-0.21632011234760284,0.021166523918509483,0.39487719535827637,-0.00834495760500431,-0.21563221514225006,-1.2904887199401855,0.1251240223646164,-0.2516157329082489,-0.1179070994257927,-0.04278919845819473,0.16677962243556976,0.25424036383628845,-0.2373780459165573,1.3952847719192505,-0.2906973659992218,0.48810306191444397,0.3122425377368927,0.22130832076072693,-0.29504770040512085,0.2644863724708557,0.2365371137857437,1.4173939228057861,-0.2690303325653076,0.3565984070301056,0.07797978073358536,0.0335911400616169,-0.3514195680618286,0.09693069010972977,0.3352155387401581,-1.5797789096832275,0.21588195860385895,-0.2679307758808136,-0.20446844398975372,-0.02602436952292919,0.10766272991895676,-0.03926808387041092,-0.15371669828891754,-1.3433120250701904,0.20063930749893188,-0.22079361975193024,-0.3533615171909332,0.0725618526339531,0.27161678671836853,-0.07614349573850632,-0.209932342171669,-1.4999721050262451,0.3173460066318512,-0.2636653780937195,-0.560272216796875,0.037259895354509354,0.21178390085697174,-0.21288755536079407,-0.17914441227912903,1.5350490808486938,-0.27940231561660767,0.531581699848175,0.3253224790096283,-0.13417740166187286,-0.33317333459854126,0.1652054637670517,0.10790702700614929,1.389283299446106,-0.11907732486724854,0.3731327950954437,0.2822624742984772,0.05155650153756142,-0.47785550355911255,0.15788939595222473,0.25351983308792114,1.5183043479919434,-0.04373515769839287,0.38603684306144714,0.2895348072052002,-0.022968707606196404,-0.38483789563179016,0.03906960040330887,0.25133636593818665,-1.592985987663269,0.20173293352127075,-0.1770164668560028,-0.1974606215953827,0.12014292180538177,0.3182218670845032,-0.005184938199818134,-0.17871902883052826,-1.5338678359985352,0.18456381559371948,-0.19494633376598358,-0.3456471562385559,0.15868164598941803,0.31713759899139404,0.007459661923348904,-0.21043254435062408,-1.2326022386550903,0.020037759095430374,-0.27849915623664856,-0.4130760133266449,0.2214713990688324,0.10956741869449615,0.13708247244358063,-0.06290403753519058,-1.5057717561721802,0.30205661058425903,-0.3665251135826111,-0.44187238812446594,0.13210298120975494,0.17401473224163055,-0.14118871092796326,-0.24959716200828552,1.6245672702789307,-0.024323785677552223,0.3606405258178711,0.2591067850589752,0.05801261216402054,-0.20716530084609985,0.17323490977287292,0.13175806403160095,-1.5006040334701538,0.3419831097126007,-0.3856588304042816,-0.24593551456928253,0.15280090272426605,0.36289921402931213,-0.04831944778561592,-0.1822175830602646,-1.4678281545639038,0.4153834283351898,-0.10861904919147491,-0.44066840410232544,0.24801717698574066,0.2554263770580292,-0.017115656286478043,-0.08868324756622314,-1.5722284317016602,0.13144329190254211,-0.32107049226760864,-0.32779985666275024,0.23536278307437897,0.26539379358291626,-0.012315124273300171,-0.06275792419910431,1.5366226434707642,-0.18327082693576813,0.2664962112903595,0.3164641559123993,0.04430324584245682,-0.12574979662895203,0.1277458518743515,0.23512588441371918,-1.787278652191162,0.2367534190416336,-0.29706627130508423,-0.21525277197360992,-0.03427007794380188,0.22907276451587677,0.010754289105534554,-0.15216080844402313,1.593418836593628,-0.34600523114204407,0.3097153306007385,0.26216205954551697,0.23405399918556213,-0.19495795667171478,0.24170604348182678,0.20633269846439362,1.5754897594451904,-0.212924987077713,0.4657866954803467,0.05569145083427429,-0.019748466089367867,-0.41380906105041504,-0.005546358413994312,0.01730838604271412,-1.5328631401062012,0.3533426821231842,-0.3080039620399475,-0.3323531746864319,0.059677835553884506,0.40998375415802,0.3022165596485138,-0.27732521295547485,-1.457317590713501,0.21496787667274475,-0.3030901849269867,-0.22563436627388,0.0349278561770916,0.4510100483894348,-0.11262945085763931,-0.0945465937256813,-1.7642277479171753,0.1444970816373825,-0.3502490520477295,-0.2987099587917328,0.31403857469558716,0.1818484365940094,-0.03625422716140747,-0.19666369259357452,1.3763537406921387,-0.35704389214515686,0.29269689321517944,0.11238019168376923,0.20648404955863953,-0.19178840517997742,0.06804748624563217,0.38399195671081543,-1.4027019739151,0.37943828105926514,-0.2381058782339096,-0.3964252471923828,-0.042668845504522324,0.3867974877357483,0.02710370346903801,-0.15774624049663544,1.4820605516433716,-0.284711629152298,0.4562278091907501,0.34664294123649597,0.12766453623771667,-0.28534987568855286,0.0849139615893364,0.2651648223400116,1.4994447231292725,-0.30230477452278137,0.45648515224456787,0.4006175398826599,0.24668890237808228,-0.43486109375953674,-0.059164680540561676,0.17876416444778442,1.423936367034912,-0.23882099986076355,0.4765479266643524,0.2652489244937897,0.1965552270412445,-0.01904599368572235,0.2333390861749649,0.2435775101184845,-1.4097424745559692,0.10260184854269028,-0.27951163053512573,-0.2970041334629059,0.24878719449043274,0.39166125655174255,0.025769347324967384,-0.21544215083122253,-1.3948180675506592,0.24583616852760315,0.10673683881759644,-0.5204514861106873,0.4183828830718994,0.21958371996879578,-0.20924310386180878,-0.1475958377122879,-1.6003154516220093,0.17419859766960144,-0.4884404242038727,-0.4747426509857178,0.051628924906253815,0.5279887318611145,-0.08284030109643936,-0.25195881724357605,-1.5084527730941772,0.2524108588695526,-0.3047637343406677,-0.29854127764701843,0.12471334636211395,0.11547412723302841,0.09719645977020264,-0.1014767736196518,-1.3957877159118652,0.278980016708374,-0.4155727028846741,-0.4113272726535797,0.24728567898273468,0.3376758396625519,0.1035560742020607,-0.16301725804805756,1.6724966764450073,-0.14563174545764923,0.35138869285583496,0.1756165623664856,0.009303673170506954,-0.2257000058889389,0.1136682778596878,0.18506912887096405,-1.4005827903747559,0.1784159243106842,-0.2302348017692566,-0.21120619773864746,0.1161298006772995,0.24725626409053802,0.19986198842525482,-0.012785881757736206,1.6797517538070679,-0.2260540872812271,0.39262741804122925,0.32561200857162476,-0.01586475782096386,-0.22254890203475952,0.1355859935283661,0.24807801842689514,-1.4572986364364624,0.6187799572944641,-0.367077499628067,-0.12795251607894897,-0.05821724981069565,0.4688599109649658,0.11849122494459152,-0.2743658423423767,-1.5775424242019653,0.19159382581710815,-0.5452814102172852,-0.3130062222480774,-0.012486203573644161,0.4170626103878021,0.13750025629997253,-0.2890463173389435,-1.4674123525619507,0.10851537436246872,-0.42122891545295715,-0.5258415341377258,-0.05278212949633598,0.20622625946998596,-0.09407030045986176,-0.11193616688251495,1.3716826438903809,-0.34402063488960266,0.4528646469116211,0.23200580477714539,0.10708199441432953,-0.18098053336143494,0.2833539545536041,-0.08327803760766983,-1.609291434288025,0.20402352511882782,-0.32251715660095215,-0.31556710600852966,0.09967027604579926,0.29165974259376526,-0.11387394368648529,-0.24771620333194733,1.5501536130905151,-0.3469657897949219,0.44535595178604126,0.2073277235031128,0.11276300251483917,-0.28489023447036743,0.05007905513048172,0.14717327058315277,1.6560596227645874,-0.22702805697917938,0.31847524642944336,0.15450745820999146,-0.16237026453018188,-0.300309956073761,0.1617390364408493,0.43708550930023193,1.5104053020477295,-0.10172531008720398,0.3424738049507141,0.2865056097507477,0.1804063320159912,-0.337090402841568,0.13412833213806152,0.03797980770468712,1.5653924942016602,-0.20790338516235352,0.36650964617729187,0.4525507092475891,-0.0431748703122139,-0.39314913749694824,0.06249701604247093,0.012743551284074783,-1.4966387748718262,0.28803423047065735,-0.46467337012290955,-0.3214775621891022,0.10671292990446091,0.33838194608688354,-0.06961596757173538,-0.28607437014579773,-1.3678176403045654,0.15128383040428162,-0.09039207547903061,-0.36124929785728455,0.04692627117037773,0.22445078194141388,0.05175698176026344,-0.3617267906665802,-1.7712723016738892,0.2967565357685089,-0.4423714280128479,-0.42267972230911255,0.10665968805551529,0.5013320446014404,-0.1363123655319214,-0.24452584981918335,-1.49616277217865,0.3014442026615143,-0.3720601797103882,-0.3887840509414673,-0.0041417949832975864,0.25578469038009644,0.11196562647819519,0.01368254330009222,-1.6578283309936523,0.24189069867134094,-0.3650689125061035,-0.3347596228122711,0.07017040997743607,0.3540512025356293,-0.05883466452360153,-0.18254956603050232,-1.3350669145584106,0.31183114647865295,-0.2862582206726074,-0.5096700191497803,0.10112360864877701,0.18674595654010773,0.0286751389503479,-0.2846406400203705,-1.3446660041809082,0.22755537927150726,-0.33304300904273987,-0.39839476346969604,0.16242419183254242,0.46281135082244873,0.06232418864965439,-0.24542340636253357,-1.419379472732544,0.31325453519821167,-0.48544588685035706,-0.2204330563545227,0.08613234013319016,0.3200276494026184,0.07213718444108963,-0.09974626451730728,-1.634537935256958,0.19672469794750214,-0.3672097325325012,-0.41653138399124146,-0.09393016248941422,0.2704791724681854,0.1414167881011963,-0.06328665465116501,1.607357144355774,-0.20758430659770966,0.4126432240009308,0.45025965571403503,0.03636534884572029,-0.12689121067523956,0.10860207676887512,0.10483609139919281,-1.5728498697280884,0.3128328323364258,-0.3057984709739685,-0.45517414808273315,0.03539026528596878,0.2784920632839203,-0.048958584666252136,-0.23313766717910767,-1.6376829147338867,0.19393695890903473,-0.17118993401527405,-0.3177342116832733,0.16731159389019012,0.23636186122894287,-0.007610660046339035,-0.24999870359897614,-1.5129810571670532,0.2300470471382141,-0.41423824429512024,-0.3417914807796478,0.2191481590270996,0.3379206955432892,-0.11787757277488708,-0.36053869128227234,-1.540148377418518,0.24154245853424072,-0.23401473462581635,-0.42211881279945374,0.1760742962360382,0.3832145929336548,-0.0572163462638855,-0.22330515086650848,-1.3744158744812012,0.299974262714386,-0.16258688271045685,-0.5462408065795898,0.19480091333389282,0.22679723799228668,0.028812602162361145,-0.12878793478012085,1.6441946029663086,-0.20399917662143707,0.3793067932128906,0.2757668197154999,-0.038636621087789536,-0.3007676303386688,0.1773688793182373,0.2260948270559311}; 

 const float b1[64]  = {0.10748351365327835,0.09556064754724503,0.07649046182632446,0.2158452868461609,0.1624227911233902,0.10002968460321426,0.0915834829211235,0.10857924073934555,0.18917427957057953,0.17826895415782928,0.17609769105911255,0.08463503420352936,0.08195314556360245,0.0638609230518341,0.09761643409729004,0.2003752440214157,0.09393350780010223,0.07259409129619598,0.08709385991096497,0.18019169569015503,0.11447696387767792,0.20598968863487244,0.18346452713012695,0.08187808096408844,0.09626459330320358,0.09781428426504135,0.17750446498394012,0.08436247706413269,0.19958293437957764,0.18997791409492493,0.2107144296169281,0.07622336596250534,0.056057240813970566,0.10852165520191193,0.08666523545980453,0.0809933990240097,0.19644956290721893,0.0764165148139,0.19983328878879547,0.09314438700675964,0.10681625455617905,0.10973796993494034,0.20136764645576477,0.1022266149520874,0.1996995359659195,0.17719674110412598,0.19769245386123657,0.17764432728290558,0.10012819617986679,0.07555593550205231,0.11459838598966599,0.09363371133804321,0.10638071596622467,0.08688374608755112,0.07842949777841568,0.0929153710603714,0.10458444058895111,0.19875653088092804,0.09893961995840073,0.08561474829912186,0.09609775990247726,0.0846630185842514,0.07170949131250381,0.19394148886203766}; 

 const float w2[64]  = {-0.3967849314212799,-0.512084424495697,-0.47062110900878906,0.32236966490745544,0.2679513990879059,-0.4362381100654602,-0.3268161416053772,-0.44790229201316833,0.4269004464149475,0.41150715947151184,0.4601021111011505,-0.4353357255458832,-0.420064240694046,-0.29806289076805115,-0.4430353343486786,0.37995508313179016,-0.5536866188049316,-0.37775421142578125,-0.42978277802467346,0.47801926732063293,-0.7330172061920166,0.33474206924438477,0.43755900859832764,-0.4594973921775818,-0.46533653140068054,-0.5167752504348755,0.4804927408695221,-0.3289632499217987,0.542941689491272,0.3240058124065399,0.3263823091983795,-0.47202742099761963,-0.35546839237213135,-0.46633782982826233,-0.49297717213630676,-0.3748117685317993,0.47316569089889526,-0.5189348459243774,0.4629902243614197,-0.37810301780700684,-0.417706161737442,-0.357394814491272,0.35609516501426697,-0.5898368954658508,0.5707886219024658,0.38340726494789124,0.42031025886535645,0.42205342650413513,-0.4243837893009186,-0.3370565176010132,-0.5470800995826721,-0.3870069980621338,-0.504834771156311,-0.4482160806655884,-0.45326608419418335,-0.3355439603328705,-0.5146239399909973,0.527010977268219,-0.45306792855262756,-0.5371370911598206,-0.5181278586387634,-0.37312132120132446,-0.378633052110672,0.38432276248931885}; 

 const float b2[1]   = {0.16989395022392273}; 

 