 const float w1[768] = {-0.4737768769264221,1.2700461149215698,0.6128206849098206,1.1485878229141235,0.046431247144937515,0.03565751016139984,-0.04386443272233009,0.13030704855918884,-0.3976043164730072,-0.6535251140594482,-0.04280857369303703,-0.0332048237323761,1.476323127746582,-0.5765333771705627,0.5962700247764587,-0.7913329601287842,-0.33709606528282166,-0.2690449655056,0.2696647346019745,0.006881178356707096,-0.6767067909240723,-0.45635440945625305,-0.5525733828544617,-0.43633008003234863,1.3069924116134644,-1.0686146020889282,-0.2421264946460724,-1.0188225507736206,0.22003628313541412,0.007103458512574434,-0.14121754467487335,-0.3140086829662323,0.12297848612070084,-0.05007964372634888,0.3560333847999573,0.43457934260368347,-2.078700065612793,0.5571741461753845,-0.7083737254142761,0.7643405795097351,0.04788636416196823,0.0825280249118805,0.09659548103809357,0.09482646733522415,0.03167764097452164,0.09013128280639648,0.2517123222351074,0.42005655169487,2.341524600982666,-1.5233125686645508,1.293200135231018,-1.5775831937789917,-0.08554191142320633,-0.12123997509479523,0.15448473393917084,0.03169255331158638,-0.10068140178918839,-0.18481752276420593,-0.5915591716766357,-0.5281689763069153,-0.04355098307132721,-1.834411859512329,-1.4279794692993164,-1.9141236543655396,0.029795106500387192,0.014634962193667889,-0.10780808329582214,-0.09500875324010849,-0.4072737693786621,-0.5706527829170227,-0.7787127494812012,-0.7295251488685608,-1.297103762626648,0.8633627891540527,0.11381492018699646,0.904012143611908,0.15226291120052338,0.06525172293186188,0.18647931516170502,0.08941979706287384,0.06453458219766617,0.14579129219055176,0.05593080446124077,0.11760653555393219,1.8035269975662231,0.22635418176651,-0.18019849061965942,-0.0317525751888752,0.22941096127033234,0.27010780572891235,0.3237370550632477,0.34014928340911865,-0.3704284429550171,-0.1978183090686798,-0.4126078486442566,-0.309893935918808,-2.486168146133423,-0.09160713851451874,-1.0662262439727783,-0.16405215859413147,-0.178565114736557,-0.22398696839809418,0.023587794974446297,-0.11625131964683533,-0.37598738074302673,-0.6044012904167175,0.22904817759990692,0.1829180121421814,0.6370260119438171,-0.2608455717563629,-0.6495407223701477,-0.5398563742637634,0.3378188908100128,0.4350556433200836,0.3285500705242157,0.4074462056159973,-0.2674444615840912,-0.2057524025440216,-0.19712287187576294,-0.1897171139717102,0.9350942373275757,-1.0100045204162598,-0.2067960947751999,-1.1650046110153198,0.12133734673261642,0.14062105119228363,-0.043184906244277954,-0.08000589162111282,-0.21237324178218842,-0.35464590787887573,0.20069095492362976,0.25154298543930054,-2.7006642818450928,1.5620975494384766,0.2874961495399475,1.9192326068878174,0.05602419376373291,-0.13109074532985687,0.04959361255168915,-0.2729526460170746,-0.18417444825172424,-0.14747728407382965,-0.09031839668750763,-0.10089264065027237,1.2462823390960693,-0.886583149433136,-0.2788732647895813,-1.0164555311203003,-0.11343418806791306,-0.1646391749382019,-0.13713936507701874,-0.0917971134185791,-0.2256162166595459,-0.18680837750434875,-0.4900227189064026,-0.5347896218299866,-1.4116358757019043,0.946164071559906,0.9188408255577087,1.0971940755844116,0.1654011309146881,0.22112183272838593,0.09081150591373444,0.022148944437503815,0.46550968289375305,0.40217649936676025,0.1334916353225708,0.16705749928951263,2.131807804107666,-0.13170583546161652,-0.4052765667438507,-0.2831467092037201,0.05010324344038963,0.01868364028632641,0.22591769695281982,0.05475514754652977,0.29412195086479187,0.07834295928478241,0.11771450191736221,0.23362195491790771,0.4686591923236847,-0.6985591650009155,-0.6572467684745789,-0.4825221300125122,0.045468658208847046,-0.12345324456691742,0.2655799388885498,0.3648715913295746,-0.4310121238231659,-0.48594653606414795,-0.4383299648761749,-0.5855333209037781,-2.3737196922302246,1.2790111303329468,0.4729602038860321,1.298308253288269,-0.09059582650661469,0.12393144518136978,-0.231159046292305,-0.048270195722579956,0.18805421888828278,0.19619299471378326,0.21375438570976257,0.30936363339424133,-2.891810894012451,1.3608437776565552,0.6354696154594421,1.382857322692871,-0.18972064554691315,-0.18293730914592743,-0.122594453394413,-0.060531120747327805,-0.34669026732444763,-0.09180642664432526,-0.18297407031059265,-0.09288256615400314,-2.420071840286255,1.0881006717681885,0.20188350975513458,1.1852495670318604,0.0991150513291359,0.02283334918320179,0.06408306211233139,-0.04369494691491127,-0.16266454756259918,-0.10089416801929474,0.045849211513996124,0.293246865272522,-2.4439399242401123,0.2825814187526703,0.09826032817363739,0.39762547612190247,0.06068098917603493,0.2805236876010895,0.15210604667663574,0.006605336908251047,0.3168807327747345,0.33705371618270874,0.5533760786056519,0.42755183577537537,0.8560453653335571,-1.6912624835968018,-0.40499502420425415,-1.6427900791168213,0.03328627720475197,-0.20758841931819916,-0.11160356551408768,-0.3970009386539459,0.25427043437957764,0.20471414923667908,-0.4272882044315338,-0.2838979959487915,-3.0353050231933594,0.754853367805481,0.4018867313861847,0.7779091596603394,-0.119388148188591,-0.19599376618862152,-0.016417909413576126,0.06290634721517563,-0.04957766830921173,-0.008094594813883305,0.09299613535404205,0.1880447268486023,-2.935075521469116,0.8751664161682129,-0.6747641563415527,0.9439578056335449,0.26244595646858215,0.27076706290245056,0.22847722470760345,0.03998991847038269,0.3786090016365051,0.18912659585475922,-0.11746978759765625,-0.2087024301290512,-2.354365825653076,0.19032350182533264,-0.36320921778678894,0.43000754714012146,0.03723255172371864,0.20221826434135437,-0.10681554675102234,-0.015267896465957165,0.02430199459195137,-0.034860048443078995,0.49175167083740234,0.507043719291687,-2.7642040252685547,0.7867476940155029,0.39111679792404175,1.0031852722167969,0.09701572358608246,0.08207466453313828,0.10406240820884705,-0.11118745058774948,0.16695831716060638,0.15806226432323456,-0.03587929159402847,0.20579376816749573,2.3148248195648193,-0.13228292763233185,-0.2752009630203247,-0.42720192670822144,0.21498307585716248,0.25667351484298706,0.18325848877429962,0.19116318225860596,0.10640615969896317,0.12551113963127136,-0.2560708224773407,-0.0681653767824173,-2.208909034729004,1.1121420860290527,-1.05545973777771,1.2055951356887817,-0.169373020529747,-0.1584695279598236,-0.025268401950597763,-0.10439720004796982,-0.2432829886674881,-0.18965311348438263,-0.23978038132190704,-0.1871272772550583,1.232789397239685,-0.5486323237419128,0.12509751319885254,-0.5986595153808594,-0.2778257727622986,-0.1483842432498932,-0.12503238022327423,0.10023065656423569,-0.23305919766426086,-0.013973794877529144,-0.31400349736213684,-0.4209965765476227,1.4946726560592651,-0.8498020172119141,0.13518863916397095,-0.9100391268730164,-0.026983223855495453,0.13376156985759735,-0.08787219226360321,-0.10161710530519485,-0.4998275637626648,-0.22931154072284698,-0.7806195020675659,-0.6722820997238159,1.8012887239456177,-2.026172399520874,0.6630887389183044,-2.033621311187744,0.3524688184261322,0.3069824278354645,-0.021570652723312378,-0.16654247045516968,0.49255016446113586,0.4135178029537201,0.14661987125873566,0.11187662184238434,-3.4048686027526855,0.5013189911842346,0.47596222162246704,0.39179593324661255,0.019590118899941444,-0.05653943493962288,-0.05458332970738411,-0.09982918202877045,-0.013917890377342701,-0.10501237213611603,0.021467091515660286,0.13327312469482422,-2.3712453842163086,1.0536839962005615,-0.8607670664787292,1.2204161882400513,0.15351472795009613,0.20091760158538818,0.08541718870401382,0.053034957498311996,0.05235455930233002,-0.22236746549606323,0.2264944612979889,0.12002812325954437,1.0757417678833008,-0.9130781888961792,-0.07646636664867401,-1.1144330501556396,0.34558162093162537,0.08781298249959946,0.03718425706028938,0.3630029261112213,-0.16352130472660065,0.004072436597198248,0.025127949193120003,0.2082398682832718,1.8802443742752075,-1.0353169441223145,0.33570894598960876,-1.0484108924865723,0.23547403514385223,0.02510477602481842,0.07736100256443024,0.22671394050121307,0.3148815631866455,0.10334515571594238,0.09475130587816238,-0.05026865005493164,1.650967001914978,-1.0024017095565796,0.4726333022117615,-1.2429178953170776,-0.17051471769809723,0.08146621286869049,-0.12107352912425995,-0.14121776819229126,0.20889869332313538,0.0849914625287056,-0.38864338397979736,-0.45566388964653015,-2.1149158477783203,1.2497316598892212,-1.206379771232605,1.1515445709228516,0.13796445727348328,-0.09862536191940308,0.1508931666612625,0.2510305643081665,-0.10959909856319427,-0.1656193882226944,0.09848184138536453,-0.033699020743370056,-2.686038017272949,1.3037407398223877,-1.3265317678451538,1.240087628364563,-0.1496250331401825,-0.11894331127405167,-0.04414142668247223,-0.025893740355968475,-0.10315290838479996,-0.13221381604671478,0.5136233568191528,0.48361626267433167,-3.068344831466675,0.9269904494285583,0.7229710221290588,1.1628822088241577,0.01509181410074234,0.11426611989736557,-0.0438525415956974,-0.08429782837629318,-0.26586630940437317,-0.20860005915164948,-0.05836005508899689,0.08314234018325806,2.154405117034912,-0.4817059338092804,1.7640539407730103,-0.648571252822876,0.08349310606718063,0.0598900280892849,0.2502562403678894,0.1144789382815361,-0.2031058967113495,-0.23191893100738525,-0.6248584985733032,-0.5978918671607971,-1.3425400257110596,1.6820714473724365,0.018911050632596016,1.2692924737930298,-0.010104366578161716,0.25376930832862854,-0.030440593138337135,0.035639796406030655,0.36488744616508484,0.287666916847229,-0.2562727630138397,-0.15851786732673645,1.627901315689087,-0.21573464572429657,0.8050935864448547,-0.33840057253837585,-0.17768695950508118,-0.24332183599472046,-0.023615790531039238,-0.1447467803955078,-0.6693697571754456,-0.7121191024780273,-0.49521246552467346,-0.4844517111778259,-2.475475788116455,0.19495247304439545,-1.7213544845581055,0.3269014358520508,-0.24847030639648438,0.02549288235604763,0.16626814007759094,0.3957049548625946,-0.06519806385040283,0.1544090062379837,0.31215545535087585,0.2619684636592865,1.6882976293563843,-0.6189944744110107,0.7607095241546631,-0.5279471278190613,0.022823002189397812,0.006818858906626701,-0.061000168323516846,0.049013275653123856,0.38100573420524597,0.1795441210269928,-0.13150830566883087,-0.18197111785411835,-2.3542137145996094,0.8331902027130127,-1.1128907203674316,0.8943780064582825,0.10691457986831665,0.08933524787425995,0.23909634351730347,-0.07477179169654846,-0.012754177674651146,-0.18233691155910492,0.2678973376750946,0.09560531377792358,-2.6231460571289062,0.7200453877449036,-0.860849916934967,0.6853921413421631,0.33851075172424316,0.17077061533927917,0.14124557375907898,0.26912328600883484,-0.2597201466560364,-0.5784459114074707,-0.2835056781768799,-0.3968244194984436,2.3542888164520264,-0.5779168605804443,-0.05924181640148163,-0.8116978406906128,0.09978035092353821,0.12374559789896011,-0.22558295726776123,-0.18092812597751617,0.6409417390823364,0.3802359998226166,0.2704983353614807,0.14522168040275574,0.7800816893577576,-0.05280125141143799,-0.548099160194397,-0.3522481918334961,-0.24835790693759918,-0.1036718338727951,0.27796798944473267,0.18103082478046417,-0.5088618993759155,-0.4423271715641022,-0.7238879203796387,-1.0199371576309204,1.813109040260315,-0.8225829601287842,-0.25647851824760437,-0.9060959219932556,0.3847953975200653,0.41656339168548584,-0.09923291951417923,0.14548449218273163,0.27159953117370605,0.3110184073448181,0.4471527338027954,0.4263046681880951,-1.822808861732483,1.5607668161392212,0.006405370309948921,1.3412446975708008,-0.10347695648670197,-0.04544443264603615,-0.2156016081571579,-0.1801825314760208,0.18521113693714142,0.20219504833221436,0.09543228894472122,-0.12409522384405136,-1.5727261304855347,0.22922593355178833,0.3464973568916321,0.5888977646827698,0.10857424139976501,0.11860981583595276,0.05529429391026497,-0.057301316410303116,0.4766945242881775,0.4371437728404999,0.35305050015449524,0.3706807494163513,-2.075706958770752,1.0988696813583374,0.28008100390434265,1.0019433498382568,-0.2557988166809082,-0.16615471243858337,-0.30633991956710815,-0.2112707495689392,0.1776323914527893,0.0423414371907711,-0.30963820219039917,-0.20623649656772614,-2.7480363845825195,1.458146572113037,0.7349949479103088,1.5531625747680664,-0.09438902884721756,-0.08091405779123306,-0.10243826359510422,-0.21509040892124176,-0.02080799639225006,-0.016506947576999664,0.32264968752861023,0.2846064567565918,-1.759135127067566,1.2485936880111694,-0.5405098795890808,1.1704415082931519,0.22744201123714447,0.3075751066207886,-0.1270742416381836,-0.054721441119909286,0.41702860593795776,0.40269961953163147,0.2282932996749878,0.07110026478767395,-2.319650650024414,0.9069993495941162,0.4203934967517853,1.2156811952590942,0.022508956491947174,-0.10832356661558151,0.005175055004656315,0.05570549890398979,0.2099083513021469,0.2603739798069,0.2344886064529419,0.3135482668876648,1.6644020080566406,-1.0994999408721924,-0.4556778073310852,-1.2593231201171875,-0.07412813603878021,-0.07227390259504318,0.06399672478437424,-0.1276598572731018,-0.44243648648262024,-0.29810094833374023,0.4454631507396698,0.5148047208786011,-2.7706286907196045,1.1559730768203735,0.6521684527397156,1.1596580743789673,-0.14694960415363312,-0.024663858115673065,-0.04866628721356392,-0.1040402352809906,-0.06394650042057037,0.10536063462495804,0.501998245716095,0.345464289188385,1.5818610191345215,-1.3614425659179688,-0.35130563378334045,-1.6981955766677856,-0.20022691786289215,-0.22208158671855927,-0.21730761229991913,-0.11060870438814163,-0.18154814839363098,-0.03838430717587471,-0.19804133474826813,-0.2091148942708969,1.527071237564087,-1.0876843929290771,0.12818868458271027,-0.9379452466964722,-0.10279444605112076,-0.042804937809705734,-0.23109041154384613,-0.16241930425167084,-0.19130681455135345,-0.4293498396873474,-0.34703558683395386,-0.37215331196784973,2.739677667617798,-0.239878848195076,0.3135302662849426,-0.5560178756713867,0.1074792891740799,0.2177734076976776,-0.06365719437599182,0.0627320185303688,0.12544198334217072,-0.03242603316903114,-0.23035605251789093,-0.21676607429981232,-1.9296307563781738,0.8831884860992432,0.5146543979644775,0.9391410946846008,-0.1244903951883316,-0.240907683968544,-0.16276508569717407,-0.08254744112491608,-0.09086022526025772,-0.31226372718811035,0.05413119122385979,0.08702429383993149,-2.0542449951171875,-0.21357083320617676,-1.8599421977996826,-0.15541890263557434,-0.007916715927422047,0.0686364695429802,-0.3795236051082611,-0.06854420900344849,0.0824013277888298,0.03422416374087334,0.6496136784553528,0.7644332051277161,-2.083509922027588,0.6887984871864319,0.3666689097881317,0.9992831349372864,0.01931801624596119,0.21291802823543549,-0.0844346359372139,0.052682649344205856,0.37811407446861267,0.14345383644104004,0.5410977602005005,0.39491182565689087,-2.6705715656280518,0.06245468184351921,-0.24233917891979218,0.35397419333457947,0.02448500134050846,-0.07605474442243576,0.26989513635635376,0.15393133461475372,-0.08553703129291534,-0.10157592594623566,-0.08393696695566177,-0.10649807006120682,1.402355670928955,-0.11445672810077667,-0.4901835322380066,-0.3299242854118347,0.22541308403015137,0.2950685918331146,0.06245997175574303,0.03869710490107536,-0.14891283214092255,-0.042694564908742905,-0.17619073390960693,0.20367063581943512}; 

 const float b1[64]  = {-0.5062249898910522,-0.3679317831993103,-0.5309950113296509,-0.4785613417625427,-0.30264854431152344,-0.15872585773468018,-0.5219464302062988,0.02234349213540554,-0.17750564217567444,-0.22162652015686035,-0.6904950141906738,-0.15614855289459229,-0.2666846215724945,-0.24562032520771027,0.2820967435836792,-0.5866047739982605,0.007494913414120674,0.03143848106265068,-0.26361507177352905,-0.0767737478017807,-0.4060301184654236,0.2739264965057373,-0.2595032751560211,-0.40933042764663696,0.14803428947925568,0.21162360906600952,-0.33927759528160095,-0.4883674085140228,-0.4232610762119293,-0.32005250453948975,0.21789059042930603,-0.48693010210990906,-0.49193403124809265,-0.49356383085250854,-0.6438437104225159,-0.5900599956512451,-0.38953834772109985,0.1505984365940094,-0.36671745777130127,-0.5431950688362122,-0.18480122089385986,-0.5875073075294495,-0.48729756474494934,-0.4538363218307495,-0.3210877478122711,-0.15288257598876953,-0.08283596485853195,0.12267973273992538,-0.4943748414516449,-0.47082045674324036,-0.14437717199325562,0.049996621906757355,-0.4102106988430023,0.10550560802221298,-0.074006587266922,0.15641288459300995,-0.18918588757514954,-0.5212564468383789,0.12925440073013306,-0.10394798964262009,-0.4322524666786194,-0.40633830428123474,-0.2771863043308258,-0.2620219588279724}; 

 const float w2[64]  = {-0.7028634548187256,-0.6871910095214844,-0.3182072639465332,-0.6531203389167786,-1.6171196699142456,0.2545374929904938,0.25105729699134827,0.22598616778850555,-0.22577129304409027,0.2882698178291321,0.382783442735672,-0.1587045043706894,-0.6995971202850342,-0.2855210304260254,0.21378295123577118,0.5704209208488464,-0.09192590415477753,-0.21163544058799744,-0.07193424552679062,-0.06011875718832016,0.34471744298934937,-0.22416767477989197,-0.49334028363227844,-0.31099265813827515,-0.1334044486284256,0.2419467270374298,-0.6056514978408813,0.6498176455497742,-0.6361967325210571,0.6890100836753845,-0.2770765721797943,0.5946694612503052,0.17601019144058228,-0.20927314460277557,0.4729069471359253,1.2429205179214478,1.6692017316818237,-0.18087877333164215,-0.7882360219955444,-0.36475828289985657,-0.32903754711151123,-1.1179678440093994,-0.2334027886390686,-0.4820062816143036,-0.5462751984596252,0.2576764225959778,0.20352087914943695,0.17631131410598755,-0.4662618041038513,-0.34379035234451294,-0.2915213406085968,-0.27403324842453003,-0.5473233461380005,-0.12776179611682892,0.13322891294956207,-0.23396876454353333,0.1532898098230362,0.34014302492141724,0.15880541503429413,-0.12816771864891052,0.8876745104789734,-0.45271173119544983,-0.09605459123849869,0.06806746125221252}; 

 const float b2[1]   = {0.06801778823137283}; 

 